6 64
0 -12.484333872795105 7.527576208114624 12.041584759950638 -11.809053182601929 11.775317907333374 -3.869847282767296 -10.508652210235596 32.69748544692993 12.954081296920776 9.99942746758461 -0.7465323209762573 -44.03947114944458 14.675246357917786 0.8575586080551147 -26.465474605560303 -29.89614224433899 -14.794393077492714 14.946742296218872 -16.00164043903351 -19.35079860687256 19.119133174419403 25.352174520492554 28.605020403862 -15.300193130970001 -23.307525396347046 17.135965824127197 -13.041327178478241 1.5471042394638062 -14.318745255470276 17.450970962643623 16.679417550563812 3.203932285308838 -5.319256544113159 -1.2066743299365044 -11.231074020266533 -25.493152797222137 1.097596075385809 32.59491145610809 -11.563283696770668 -44.723502062261105 -14.00238972902298 11.672089099884033 10.831670626997948 4.356368184089661 15.723552525043488 -2.0948420464992523 -1.8525437116622925 12.907829880714417 -25.364036224782467 6.050317168235779 6.043402910232544 -6.9644811153411865 -21.795602798461914 -3.572500228881836 -7.057257413864136 -16.018523573875427 -18.08130158483982 -39.95497393608093 -39.3409743309021 -17.387309074401855 0.6213678121566772 1.8519803285598755 28.681621879339218 30.7153342962265 
1 -19.79795205593109 -2.988166093826294 1.7245152294635773 -9.932074069976807 0.749333456158638 -0.4234221428632736 -1.0185138881206512 14.213711500167847 -1.3294232487678528 8.251616597175598 4.160437822341919 -13.163755655288696 12.07854276895523 10.957366704940796 -9.77779734134674 -25.50197172164917 -10.781321480870247 16.77640001475811 4.166125297546387 -15.892429828643799 6.898862659931183 14.84551739692688 14.466121792793274 -17.42732471227646 -15.418775796890259 12.43514358997345 -8.176841095089912 6.912266969680786 3.829923152923584 10.961592391133308 12.311517655849457 0.023311138153076172 -3.674410820007324 -14.649411797523499 -0.2769145965576172 -8.265271037817001 13.696078803390265 16.15056586265564 -7.646473288536072 -16.7166251167655 -18.387469828128815 17.80997085571289 15.460723519325256 -13.470240592956543 6.438631772994995 0.678769588470459 -5.750133126974106 4.753958314657211 -12.776178978383541 -1.1764515042304993 2.797255039215088 9.377651929855347 3.409208297729492 -13.117341995239258 -18.735150814056396 -10.680909156799316 -15.713367357850075 -12.682033777236938 -28.93959617614746 -13.391067743301392 8.88476812839508 1.7021688222885132 -5.448066622018814 11.684221029281616 
2 -8.725191831588745 -8.035872220993042 2.491000920534134 -10.938131213188171 -2.925189759582281 -18.924762055277824 -7.293142914772034 -9.02901577949524 -26.61657540500164 5.619337677955627 -18.747663617134094 9.66264033317566 34.54732275009155 9.610732462722808 -15.477246027439833 -20.31904172897339 -14.756635898724198 -7.0012078285217285 -1.1017932891845703 7.578060120344162 3.368777573108673 45.38901901245117 17.35422909259796 -6.657280445098877 -16.817935347557068 -2.9854536950588226 8.567958533763885 22.33511972427368 14.0678641051054 5.74597205221653 10.228070557117462 -4.454974293708801 -6.970328912138939 -15.274256944656372 -20.608895540237427 0.4254838228225708 -12.917307171970606 4.86009806394577 -3.834331452846527 16.923995591700077 -4.051634192466736 27.696100667119026 0.6732760071754456 7.0394812524318695 5.544204503297806 7.248511701822281 7.632059574127197 -2.973099648952484 -13.811193130910397 -0.5307333916425705 4.193845510482788 14.344644665718079 10.733138009905815 -16.266221284866333 -21.245089769363403 -14.85519564151764 -17.487313643097878 -12.450328648090363 -32.121403992176056 -11.000089466571808 16.379573702812195 -16.738636136054993 -20.596514970064163 14.170475363731384 
3 -16.79414212703705 5.610913634300232 -5.103417128324509 -10.686730146408081 18.014621555805206 -6.305437609553337 -15.97738179564476 20.740802943706512 2.925283670425415 18.542989373207092 6.859683632850647 -36.47883105278015 16.2182137966156 7.8034868240356445 -18.239122927188873 -30.551531314849854 -11.608654633164406 13.724999591708183 -8.364383280277252 -24.49107050895691 11.80594652891159 25.68920874595642 31.69756829738617 -27.811157882213593 -29.98508381843567 14.583772599697113 -25.423596933484077 -1.0467690229415894 -5.554626986384392 18.98154754936695 -2.9672011733055115 1.7723134756088257 -16.47752058506012 -5.034948825836182 -1.3445842117071152 -11.488339394330978 -0.823918554931879 16.393458493053913 -7.428374066948891 -43.73685374110937 -20.31771093606949 4.994898796081543 26.665825486183167 -5.506406232714653 13.69813996553421 1.535751849412918 -14.834137320518494 1.534904569387436 -25.79947914928198 6.100229978561401 14.312263250350952 -8.450886726379395 -18.54771053791046 -15.352460622787476 -9.366500854492188 -1.0884867906570435 -26.838743552565575 -39.207754611968994 -32.81732702255249 -38.69983649253845 5.4600149393081665 0.21220243256539106 14.001665264368057 23.32402628660202 
4 -11.23256778717041 3.007812023162842 -6.931547373533249 -10.157840967178345 2.6977699398994446 -11.887593626976013 -6.976720422506332 15.161584973335266 -8.79278302192688 13.18826824426651 7.35211455821991 -3.347461462020874 12.752361059188843 11.160824060440063 -1.834011197090149 -14.690144538879395 -8.839425325393677 6.449980065226555 8.311553418636322 -10.31310224533081 14.778364717960358 8.867460250854492 18.16717827320099 -8.151701390743256 -18.428175926208496 9.729467213153839 -6.119420602917671 -0.8338292837142944 -1.1275489777326584 17.956288814544678 -6.78959721326828 -1.5212986469268799 -6.127321839332581 1.7834510803222656 -7.605427265167236 1.1860442459583282 6.809050347656012 6.360000729560852 -8.276432037353516 -17.522676840424538 -10.279648840427399 8.933308839797974 22.686253547668457 -3.7375793904066086 7.838676273822784 7.29493322968483 -15.30447518825531 1.980463594198227 -22.082911431789398 -13.272069096565247 -5.406316578388214 7.656185626983643 -10.432425737380981 -10.598065853118896 -11.001314163208008 -2.05657958984375 -11.088068649172783 -6.8948118686676025 -35.90795040130615 -29.499301433563232 -1.1254433393478394 8.147703531198204 8.4790720641613 5.940819442272186 
5 -14.967689156532288 -1.2716495990753174 28.432449609041214 -20.06950199790299 7.868147119879723 10.603091076016426 -1.9464811384677887 24.078103065490723 17.530135095119476 20.167416483163834 5.326891660690308 -17.05974853038788 27.550094544887543 31.061015129089355 -28.468120001256466 -42.087103605270386 -12.079651489853859 6.859505578875542 0.5568443536758423 -22.914678037166595 22.13576591014862 38.73541831970215 11.136690855026245 -23.73025357723236 -28.64496810734272 23.02324676513672 -13.195494070649147 -0.6546201705932617 -15.058663666248322 17.898207053542137 27.466952443122864 14.760621070861816 -24.630629122257233 -10.462987303733826 6.21207432448864 -9.404111415147781 13.027537107467651 30.717793107032776 -6.3613235503435135 -31.301889292895794 -25.31105650961399 6.24738471955061 30.877048134803772 -5.723464369773865 13.504981279373169 1.2469592988491058 -9.98711621761322 8.466574996709824 -16.770169399678707 3.549908459186554 10.050098329782486 -0.8379791975021362 -10.236400842666626 -7.152059853076935 -2.7820255756378174 -17.816660523414612 -31.35155153274536 -19.987253613770008 -28.963782966136932 -22.09571862220764 15.10177195072174 -24.130950689315796 -2.352812647819519 29.4350066781044 
